digraph Tree {
node [shape=box, style="filled, rounded", color="black", fontname=helvetica] ;
edge [fontname=helvetica] ;
0 [label=<Sex &le; 0.5<br/>entropy = 0.952<br/>samples = 877<br/>value = [551, 326]<br/>class = Died>, fillcolor="#e5813968"] ;
1 [label=<Fare &le; 26.2687<br/>entropy = 0.57<br/>samples = 572<br/>value = [495, 77]<br/>class = Died>, fillcolor="#e58139d7"] ;
0 -> 1 [labeldistance=2.5, labelangle=45, headlabel="True"] ;
2 [label=<Age &le; 12.75<br/>entropy = 0.4344<br/>samples = 414<br/>value = [377, 37]<br/>class = Died>, fillcolor="#e58139e6"] ;
1 -> 2 ;
3 [label=<SibSp &le; 2.0<br/>entropy = 1.0<br/>samples = 18<br/>value = [9, 9]<br/>class = Died>, fillcolor="#e5813900"] ;
2 -> 3 ;
4 [label=<Fare &le; 10.2416<br/>entropy = 0.9887<br/>samples = 16<br/>value = [7, 9]<br/>class = Survived>, fillcolor="#399de539"] ;
3 -> 4 ;
5 [label=<entropy = 0.0<br/>samples = 2<br/>value = [2, 0]<br/>class = Died>, fillcolor="#e58139ff"] ;
4 -> 5 ;
6 [label=<entropy = 0.9403<br/>samples = 14<br/>value = [5, 9]<br/>class = Survived>, fillcolor="#399de571"] ;
4 -> 6 ;
7 [label=<entropy = 0.0<br/>samples = 2<br/>value = [2, 0]<br/>class = Died>, fillcolor="#e58139ff"] ;
3 -> 7 ;
8 [label=<Age &le; 34.25<br/>entropy = 0.3686<br/>samples = 396<br/>value = [368, 28]<br/>class = Died>, fillcolor="#e58139ec"] ;
2 -> 8 ;
9 [label=<Age &le; 28.75<br/>entropy = 0.4223<br/>samples = 303<br/>value = [277, 26]<br/>class = Died>, fillcolor="#e58139e7"] ;
8 -> 9 ;
10 [label=<entropy = 0.3576<br/>samples = 236<br/>value = [220, 16]<br/>class = Died>, fillcolor="#e58139ec"] ;
9 -> 10 ;
11 [label=<entropy = 0.608<br/>samples = 67<br/>value = [57, 10]<br/>class = Died>, fillcolor="#e58139d2"] ;
9 -> 11 ;
12 [label=<Age &le; 44.5<br/>entropy = 0.1498<br/>samples = 93<br/>value = [91, 2]<br/>class = Died>, fillcolor="#e58139f9"] ;
8 -> 12 ;
13 [label=<entropy = 0.0<br/>samples = 59<br/>value = [59, 0]<br/>class = Died>, fillcolor="#e58139ff"] ;
12 -> 13 ;
14 [label=<entropy = 0.3228<br/>samples = 34<br/>value = [32, 2]<br/>class = Died>, fillcolor="#e58139ef"] ;
12 -> 14 ;
15 [label=<Fare &le; 26.4688<br/>entropy = 0.8163<br/>samples = 158<br/>value = [118, 40]<br/>class = Died>, fillcolor="#e58139a9"] ;
1 -> 15 ;
16 [label=<entropy = 0.0<br/>samples = 4<br/>value = [0, 4]<br/>class = Survived>, fillcolor="#399de5ff"] ;
15 -> 16 ;
17 [label=<Age &le; 0.96<br/>entropy = 0.7845<br/>samples = 154<br/>value = [118, 36]<br/>class = Died>, fillcolor="#e58139b1"] ;
15 -> 17 ;
18 [label=<entropy = 0.0<br/>samples = 2<br/>value = [0, 2]<br/>class = Survived>, fillcolor="#399de5ff"] ;
17 -> 18 ;
19 [label=<Age &le; 22.5<br/>entropy = 0.7668<br/>samples = 152<br/>value = [118, 34]<br/>class = Died>, fillcolor="#e58139b6"] ;
17 -> 19 ;
20 [label=<entropy = 0.3228<br/>samples = 34<br/>value = [32, 2]<br/>class = Died>, fillcolor="#e58139ef"] ;
19 -> 20 ;
21 [label=<entropy = 0.8432<br/>samples = 118<br/>value = [86, 32]<br/>class = Died>, fillcolor="#e58139a0"] ;
19 -> 21 ;
22 [label=<Pclass &le; 2.5<br/>entropy = 0.6879<br/>samples = 305<br/>value = [56, 249]<br/>class = Survived>, fillcolor="#399de5c6"] ;
0 -> 22 [labeldistance=2.5, labelangle=-45, headlabel="False"] ;
23 [label=<Em_S &le; 0.5<br/>entropy = 0.2254<br/>samples = 165<br/>value = [6, 159]<br/>class = Survived>, fillcolor="#399de5f5"] ;
22 -> 23 ;
24 [label=<entropy = 0.0<br/>samples = 58<br/>value = [0, 58]<br/>class = Survived>, fillcolor="#399de5ff"] ;
23 -> 24 ;
25 [label=<Age &le; 3.5<br/>entropy = 0.3117<br/>samples = 107<br/>value = [6, 101]<br/>class = Survived>, fillcolor="#399de5f0"] ;
23 -> 25 ;
26 [label=<entropy = 1.0<br/>samples = 2<br/>value = [1, 1]<br/>class = Died>, fillcolor="#e5813900"] ;
25 -> 26 ;
27 [label=<Age &le; 23.5<br/>entropy = 0.2762<br/>samples = 105<br/>value = [5, 100]<br/>class = Survived>, fillcolor="#399de5f2"] ;
25 -> 27 ;
28 [label=<entropy = 0.0<br/>samples = 29<br/>value = [0, 29]<br/>class = Survived>, fillcolor="#399de5ff"] ;
27 -> 28 ;
29 [label=<entropy = 0.35<br/>samples = 76<br/>value = [5, 71]<br/>class = Survived>, fillcolor="#399de5ed"] ;
27 -> 29 ;
30 [label=<Fare &le; 23.8<br/>entropy = 0.9403<br/>samples = 140<br/>value = [50, 90]<br/>class = Survived>, fillcolor="#399de571"] ;
22 -> 30 ;
31 [label=<Em_Q &le; 0.5<br/>entropy = 0.8631<br/>samples = 119<br/>value = [34, 85]<br/>class = Survived>, fillcolor="#399de599"] ;
30 -> 31 ;
32 [label=<Fare &le; 7.5229<br/>entropy = 0.9326<br/>samples = 89<br/>value = [31, 58]<br/>class = Survived>, fillcolor="#399de577"] ;
31 -> 32 ;
33 [label=<entropy = 0.0<br/>samples = 6<br/>value = [0, 6]<br/>class = Survived>, fillcolor="#399de5ff"] ;
32 -> 33 ;
34 [label=<entropy = 0.9533<br/>samples = 83<br/>value = [31, 52]<br/>class = Survived>, fillcolor="#399de567"] ;
32 -> 34 ;
35 [label=<Fare &le; 7.675<br/>entropy = 0.469<br/>samples = 30<br/>value = [3, 27]<br/>class = Survived>, fillcolor="#399de5e3"] ;
31 -> 35 ;
36 [label=<entropy = 0.971<br/>samples = 5<br/>value = [2, 3]<br/>class = Survived>, fillcolor="#399de555"] ;
35 -> 36 ;
37 [label=<entropy = 0.2423<br/>samples = 25<br/>value = [1, 24]<br/>class = Survived>, fillcolor="#399de5f4"] ;
35 -> 37 ;
38 [label=<Fare &le; 31.3312<br/>entropy = 0.7919<br/>samples = 21<br/>value = [16, 5]<br/>class = Died>, fillcolor="#e58139af"] ;
30 -> 38 ;
39 [label=<entropy = 0.0<br/>samples = 10<br/>value = [10, 0]<br/>class = Died>, fillcolor="#e58139ff"] ;
38 -> 39 ;
40 [label=<Fare &le; 32.8812<br/>entropy = 0.994<br/>samples = 11<br/>value = [6, 5]<br/>class = Died>, fillcolor="#e581392a"] ;
38 -> 40 ;
41 [label=<entropy = 0.0<br/>samples = 2<br/>value = [0, 2]<br/>class = Survived>, fillcolor="#399de5ff"] ;
40 -> 41 ;
42 [label=<entropy = 0.9183<br/>samples = 9<br/>value = [6, 3]<br/>class = Died>, fillcolor="#e581397f"] ;
40 -> 42 ;
}